//Numpy array shape [1, 32, 32]
//Min -0.176764845848
//Max 0.176593840122
//Number of zeros 0

#ifndef W29_H_
#define W29_H_

#ifndef __SYNTHESIS__
mlp_3_weight_t w29[1024];
#else
mlp_3_weight_t w29[1024] = {0.1703926474, 0.0351120755, -0.0953258425, 0.1547858417, 0.0971216783, 0.1600647122, -0.0501679629, -0.1605909169, -0.0888971835, 0.0895218030, -0.1465913355, -0.0675774142, 0.0353750698, -0.1220259368, -0.0067047626, -0.0040589734, 0.1032466069, -0.1639445424, 0.0048882966, -0.1700398326, 0.1064412296, -0.0734375343, 0.1180997863, 0.0974715799, 0.1353802532, -0.1603422612, 0.1356679350, 0.1620188653, 0.1651001424, -0.1174458563, -0.1086300015, -0.1018049121, 0.0937094912, -0.1767648458, 0.0290556997, -0.1357216090, -0.1325248629, -0.1278076470, -0.0240399726, 0.1183151603, 0.0628273785, 0.0335187763, -0.1310012341, -0.0380978435, 0.1482912004, -0.1682390869, -0.1196203604, -0.0503439680, 0.0285783652, -0.0183864571, 0.0545138493, -0.0678770766, 0.0706200376, 0.0506379195, -0.0178312566, 0.0337667912, 0.0691409111, 0.1173931137, 0.0691184700, -0.0745454282, -0.0178793669, -0.1452339739, 0.1156674922, -0.1452331692, -0.0784848928, 0.0501478352, 0.0166900251, -0.0527931191, -0.0244949888, 0.1539789587, -0.1129391193, -0.0910608321, -0.0798732713, -0.1381714195, 0.0448094532, 0.1518096179, 0.0179330613, -0.0006838537, -0.1066317558, 0.1008976176, -0.0647753030, 0.1130710766, 0.0454309732, -0.0165725611, 0.0798135474, 0.0638998896, 0.0308689196, -0.0262807719, 0.0572285056, -0.0775040463, -0.0418848209, 0.0058228187, -0.1449377984, 0.0422600545, -0.0513657331, 0.0637917817, -0.0983237475, -0.1154227853, 0.0194722656, 0.1299798936, 0.0894794464, 0.0918244347, 0.0884910971, -0.1172558144, 0.0766179338, -0.1655427068, -0.0874078870, -0.0656518266, -0.1336102933, -0.0873149931, -0.1493441910, -0.0687479600, -0.0876211226, -0.0445179045, 0.0336235128, -0.1276552975, -0.0166933127, -0.0015649757, 0.0305582341, 0.0429642424, 0.0310556516, 0.1647358388, -0.1301823854, -0.0163666755, -0.1266783774, -0.0242774896, 0.0463330634, 0.1049043238, -0.0026222293, 0.1068172902, -0.0826119706, 0.0857172236, 0.1340020895, -0.0691918656, -0.0900840610, -0.0330162384, -0.1356614381, 0.0414441563, 0.0809806362, 0.1091626957, 0.0526867434, 0.0004460401, 0.1542162150, 0.1644892246, 0.0849475861, -0.0098917810, 0.0218883958, -0.0484429114, -0.0931415185, 0.1676299423, -0.0379006155, 0.0932593644, 0.0290515274, 0.0845041573, 0.0102097159, -0.1269552857, -0.1597458720, 0.0278415121, -0.0824934766, -0.0284276064, -0.0781450570, 0.1434495300, -0.0801412016, -0.0132302325, -0.1542663127, -0.0772281736, 0.1663773209, 0.1078156829, -0.0602589697, 0.0664611980, 0.1027546674, -0.0919822678, -0.0553040206, 0.0006883002, 0.0138828130, 0.0761299357, -0.1366919577, 0.1097766459, 0.0485189036, 0.1035720408, -0.0505975634, 0.1514394581, 0.0468002185, -0.1384114772, 0.0937880725, 0.1327675879, -0.1466319114, 0.0859674513, -0.1149439365, -0.1575811356, 0.1170730069, -0.0361181833, 0.1268111765, -0.1572776586, 0.1488655806, 0.0801634714, 0.0600306205, -0.0546646081, 0.0562141575, 0.0053481190, -0.0305365287, 0.0591528267, -0.1685266793, 0.1205824092, -0.1722412258, -0.1010042056, -0.1114628389, -0.1584641337, -0.1031452864, 0.1152899861, 0.1262338609, -0.1201886684, -0.1027527079, 0.1686531752, -0.1510557383, -0.0117902644, -0.1344642639, -0.1699132919, 0.0873573273, -0.0198692884, -0.1229278594, 0.0789635330, 0.0718229711, 0.1374785751, -0.1260584146, -0.1467181742, 0.1765938401, 0.0562292486, -0.0133208698, -0.1237474456, -0.1361513883, 0.1525333822, 0.0871401429, -0.1263661534, -0.1205048114, -0.0167392101, -0.1355401278, 0.1695613265, -0.1727019995, 0.1561278552, -0.1684482843, -0.1101681069, -0.0950207412, -0.0144822048, -0.0164972674, 0.0207680911, -0.1754239649, 0.0840101913, 0.0938297808, 0.0746753663, -0.1007092372, 0.0815823078, -0.0151250707, 0.0457132943, -0.0008778556, -0.0805550143, -0.1623721272, -0.1734069884, 0.1419175565, 0.1556072831, -0.1344440579, -0.0924106315, -0.1170865595, -0.0972597301, -0.0099610910, 0.1674609482, -0.0713062063, 0.0869623497, -0.0083881710, -0.1368122548, -0.0113889212, -0.0505938120, 0.0936465636, -0.1146198064, 0.0716392100, -0.0834419504, -0.0753442794, 0.0469247624, 0.0271887202, 0.1676033735, 0.0739135593, -0.1023241356, 0.1746219695, 0.1527409554, -0.1193991527, 0.1514814794, 0.1119052544, 0.1561363041, -0.0187050235, 0.0814994201, 0.1365787089, -0.0165068340, -0.0308302287, -0.0293405708, -0.1406467259, 0.1480801105, -0.0641388446, 0.1606887132, -0.1618303657, 0.0488163345, 0.1451636106, -0.0507547520, -0.0173450503, 0.1162872836, 0.1726469100, 0.1378263682, -0.0796526521, 0.1715633869, -0.0908773914, 0.1068399623, 0.0046977298, 0.0676018596, 0.0507432260, -0.0784795582, -0.0935082808, -0.1567056626, -0.0476654917, 0.1454585046, 0.0056227478, -0.1759822816, 0.1240334287, 0.1672541797, -0.0843746811, 0.0117481602, 0.1456122100, -0.1632737070, 0.0568412393, 0.1501865685, 0.0453289784, 0.1398672611, -0.1368191242, -0.1664705276, -0.1018854752, -0.1631268412, -0.0180854443, -0.1419405788, 0.1282600909, -0.1007813290, 0.1132955775, -0.0056752204, -0.0003665511, 0.1139971316, -0.1108520478, -0.1231857762, -0.1119197756, 0.0146698430, -0.1236856356, 0.1168722808, 0.1627228260, -0.0205827709, 0.0817038342, 0.0128932893, 0.1186724156, -0.1742641479, 0.0732022896, 0.1153512672, 0.0527241901, -0.0648899600, -0.1446588933, 0.0049772477, 0.1313452423, 0.1476967186, 0.0432746969, 0.0536017716, -0.0467374399, 0.0662989691, -0.0563063771, -0.0451159030, -0.1364967376, -0.0614562146, -0.0197895467, 0.1599483192, 0.1350409389, 0.1019928232, 0.0989548787, -0.1562557966, -0.0473770835, 0.0946651101, 0.1389490068, -0.1281950772, -0.0749230832, -0.1155914590, 0.1100965664, -0.1486095488, 0.0325131118, -0.0368066095, 0.1376659125, -0.1763694733, -0.0881072655, 0.0501630083, -0.1224560216, 0.1277505755, -0.1643176377, 0.0730283707, 0.0653068572, 0.1624313146, 0.0936519578, 0.1098752916, 0.1084818542, -0.1086593792, -0.1123269796, -0.0007343245, 0.1345205754, -0.1047508717, -0.0947579816, -0.0288479999, -0.1171755046, 0.1106134728, 0.1258020401, 0.0783923566, -0.0673738420, -0.0089058401, 0.0426727347, -0.1263641566, 0.1335481703, -0.1330872625, -0.0059217373, 0.1028449014, 0.0044384846, 0.1546045691, -0.1651854068, 0.0271337610, 0.0097788488, 0.0783305466, -0.0561638139, -0.1151372865, -0.1700889617, -0.0183580499, -0.1167302057, 0.1142906845, -0.0753263831, -0.1231381893, 0.0697792098, 0.0273401551, 0.0343176723, -0.0705304071, 0.1715944409, -0.0783474520, -0.1604442894, -0.1734470129, -0.1423746496, 0.0157369580, 0.0394385345, -0.0845536143, -0.1243731976, 0.0367824174, -0.0645855144, 0.0325589888, -0.0643701628, 0.0209377743, 0.0368669443, 0.0252523888, -0.0973812193, -0.1530131400, -0.1323101223, 0.1398787051, -0.1001740992, 0.1385415196, 0.0824552700, 0.0477398187, -0.0277498849, 0.0774552450, -0.1736962199, 0.0254225787, -0.1493942589, -0.1067284867, 0.0658194497, 0.1175309122, -0.0732720643, 0.0252050795, -0.1074798554, 0.0787458643, -0.1428150982, 0.1197494566, -0.1024992391, 0.1310082227, 0.1474075317, 0.0887822285, 0.0535249151, -0.1485188603, 0.1208163649, 0.0295848530, 0.0310311224, 0.0397985093, -0.1518212855, 0.1534124166, 0.1271870434, -0.0067527681, -0.0997600257, 0.0336312465, -0.0742785931, 0.0304475985, 0.1753864437, 0.1703195423, 0.0150095886, -0.0239065774, 0.0100781117, 0.0330350362, 0.1361653656, 0.1049463898, -0.0838275701, 0.1443032771, -0.0755250454, 0.0471664742, 0.0588935167, -0.1627125889, -0.0612186752, -0.1039794534, 0.1268344969, -0.1493406594, 0.0703150854, -0.0178066436, 0.1317133456, -0.1625221074, 0.1250784397, -0.1449308544, -0.1117052287, 0.0133783575, -0.0511422716, 0.1606560946, -0.1030045152, -0.0509847663, 0.1719416529, -0.0028389907, 0.1298287660, 0.1223912463, -0.0517598055, 0.1702946275, -0.1385892928, 0.0007141151, -0.0888496041, 0.1228116378, -0.0495433025, -0.0185838733, 0.0597626902, -0.0805563629, 0.1184843555, -0.0871689543, 0.0394096635, 0.1327963471, -0.1607270390, -0.0196470059, -0.1223553568, -0.0120103136, 0.1468647420, -0.0875182226, -0.1692872196, 0.0848743096, 0.0845348388, 0.1694086194, 0.0100175468, -0.1710882336, 0.0453904048, -0.1270064712, 0.0367997400, -0.0596937202, 0.0064242752, -0.0435056835, -0.0705131069, -0.1419842541, -0.0214818064, -0.0048122429, 0.1527518034, -0.0534438901, -0.1202632934, -0.1067171916, -0.0246818680, 0.1037575081, 0.1289916337, -0.0859163478, 0.0580949821, -0.1370109022, 0.0173776504, -0.1005218998, 0.1166029871, 0.1282127202, -0.0512784272, -0.0662121475, 0.1194530204, -0.0406336933, -0.1236919761, 0.0407726280, 0.0687124506, 0.0520693734, 0.1553020030, 0.0023549763, 0.1371028125, -0.1103403643, 0.1131411269, 0.0472051874, 0.0706570596, 0.0799633414, 0.1307164282, 0.0168946069, 0.0109076248, 0.0585826635, 0.0766928717, 0.1551149637, 0.0841544867, 0.1765192449, 0.1609281301, 0.0280883461, 0.0303842518, -0.0902663693, 0.0046945899, 0.1090882868, -0.1611962318, -0.1559077501, -0.0516052097, -0.0104048131, -0.1595869809, -0.0673315078, -0.0403215326, 0.1100026816, -0.0719868615, 0.1343526095, 0.0256873034, -0.0006025314, 0.1066214517, 0.0114270644, -0.0473212376, -0.1612285972, -0.0524328910, 0.1701481342, -0.1657413393, 0.1366755962, -0.0694577545, 0.1075542271, 0.0841498449, 0.0513367578, 0.0242762901, -0.1345168054, -0.0200405940, 0.0938997194, -0.1762351096, -0.1529240161, 0.1402156055, 0.1610461771, -0.1002070829, -0.0202863105, -0.1206435636, -0.1079850271, 0.0791791305, 0.0480587035, 0.1077933013, 0.1243739799, 0.0745285004, 0.1723401248, -0.0361240841, 0.1235487610, 0.0390152931, -0.0425052233, 0.0391787402, -0.0525458865, 0.0057157869, 0.1474557668, 0.0042672628, 0.0342812538, -0.0426074080, -0.0952141732, 0.1759395748, 0.1672842801, -0.1587968320, 0.0967779681, -0.1109302267, -0.1276970059, 0.1459646076, -0.0810897350, -0.1460061371, -0.1553816050, -0.1201251522, 0.1248241290, 0.0369538292, 0.0384054519, -0.0878107473, 0.1587423682, -0.0648811981, -0.0877293199, -0.1190144569, 0.1760144830, -0.1551014781, 0.1457497627, 0.1660889238, 0.0190251078, -0.0197480954, 0.1421513110, -0.0525789708, 0.0600267611, 0.1386349946, -0.0441802219, -0.0254664533, -0.0609326884, 0.0284152776, -0.0380345993, 0.1413550973, -0.1650705934, 0.1623517722, 0.0979116336, -0.0526847802, 0.0251203645, -0.1454288960, 0.0038335719, 0.1334197670, -0.0559588745, 0.0079501597, 0.0094511779, -0.1655921787, 0.0210172422, -0.0822960585, -0.1355609596, 0.0494286641, 0.0211092271, -0.1192269847, -0.1195483357, 0.1078068763, -0.0797174126, -0.1309234649, -0.0201521367, 0.0675505847, -0.0567038208, 0.1253552884, 0.0452447459, 0.1395232230, -0.0286073200, -0.0606039837, -0.1186112612, 0.0785796121, -0.1691223234, 0.0419578403, -0.1331594437, 0.0972810984, -0.0571642555, 0.1232919395, 0.0717746094, -0.1335051209, 0.0433656722, 0.0716985911, -0.0984576494, 0.1326278746, 0.0057206550, -0.0448783413, -0.1264583766, 0.0672281235, -0.0704969689, 0.0903653949, -0.1014351994, 0.0607767664, -0.0212421790, -0.1002550200, -0.1318475455, 0.0314081684, 0.1693883091, 0.0459024683, 0.0813459009, -0.1323075593, 0.0762451217, 0.1536149532, -0.0120639028, 0.0114645120, -0.0967217684, 0.0610106587, -0.1422556192, 0.1576229781, 0.1188888401, 0.0945850909, -0.0596412681, 0.0071184551, -0.1455872506, -0.1240348667, 0.0020299186, 0.0629449040, -0.0057416442, -0.1186879650, 0.0653622821, 0.1095094979, 0.0259889048, -0.0986029506, -0.1234161481, 0.1013032123, -0.1248838529, 0.0828465819, 0.1201986820, 0.0159451421, 0.0134871602, 0.1273895204, 0.1165275648, -0.1418541521, 0.1189190149, 0.0291150007, 0.1446418315, -0.0656729862, 0.1186574101, 0.1128709689, 0.0522101037, 0.0012630146, -0.1636454463, 0.1420539767, 0.1403122693, 0.1123012900, 0.0486022495, 0.1746116132, -0.0646082908, 0.0554245152, 0.0885272175, -0.0496055111, -0.1556565911, 0.1558958143, -0.0969001949, 0.0764286965, 0.0079669971, -0.0939269662, -0.0653121918, 0.1068399176, -0.1105364710, -0.0719353780, 0.1604732126, -0.1004662216, -0.0207859185, 0.0774039701, 0.1173639223, 0.1034034342, 0.1463962048, 0.1650972962, -0.1031982228, 0.0100828325, -0.1386708468, -0.1682883799, 0.0217372365, 0.1136662140, 0.0002037379, -0.0811107010, 0.0752813965, -0.0184579175, -0.1209659204, -0.1568121761, 0.0243700035, 0.0276147407, -0.1391877085, 0.0606380813, 0.0402267203, 0.0862340555, 0.0339104459, -0.0856794864, -0.1707404405, 0.0465275086, -0.1155984327, 0.1121722981, -0.0809537694, -0.0258161873, 0.0427130498, -0.1330356002, -0.0281534623, -0.0643454641, 0.1223558411, 0.0310893487, 0.0472703464, 0.1363231987, 0.1637849212, -0.1688402444, 0.0410249196, -0.0750003755, -0.1578016728, 0.1129162908, 0.1169749945, 0.0088661797, -0.0080737136, 0.0189678725, 0.0117006814, 0.1477331519, -0.0722263753, -0.0751580298, 0.0431175120, -0.1335318834, -0.0061370027, 0.1102533117, 0.1095726341, 0.1199203432, 0.0110380063, -0.0396345370, 0.0605005361, 0.0324731544, 0.1701037288, -0.1002262980, -0.0349511169, -0.0953391641, -0.1548701674, 0.1066579521, -0.0413452797, -0.1008387357, -0.0515294112, -0.0759546906, 0.0171816479, 0.0799503550, 0.1064426452, -0.1029076427, -0.1035601795, 0.0358521529, -0.0220187772, -0.1655351967, -0.1566126049, 0.0742977709, -0.0305639245, 0.1338066608, 0.0935390517, 0.0480949469, 0.0524358824, 0.1535418928, 0.1366887540, -0.1625726819, -0.0706833005, 0.1086158827, -0.0841614828, 0.0554859042, -0.1151100770, -0.0141038736, -0.1398000121, 0.1585651934, 0.0523745380, -0.0280419197, 0.1472869366, 0.1055665612, -0.0042588338, -0.0168375596, -0.0107251927, -0.1264432222, -0.1196203157, 0.1436976194, -0.1184855551, -0.0579229183, -0.0521846898, 0.1336448044, -0.0979647413, -0.0390320271, -0.1166117117, -0.0113274083, 0.0709158033, 0.1077423692, -0.0921911523, -0.0578029677, -0.1576464921, -0.0506941006, 0.0606887229, -0.0686075464, 0.1348438412, -0.1107585207, -0.1728953719, 0.0087898308, 0.1250648499, -0.1257301420, -0.1586512029, -0.1075134724, 0.1024622098, 0.1130704656, 0.1127853021, -0.0896385089, 0.1283106655, 0.1587237716, 0.1034583524, -0.0401461571, 0.0536556989, 0.1419658661, -0.1331996322, 0.1721376777, -0.1441376060, -0.0040582777, -0.0254160035, -0.1418754756, 0.0344446376, -0.0598547831, -0.1052182391, 0.0845848247, -0.1328818053, 0.1315702200, 0.1051385328, 0.0697223470, 0.0206742939, 0.0123163201, 0.0613330826, 0.1466976851, 0.0992870182, -0.1115024984, -0.0264887046, -0.1665640473, -0.1309413910, 0.1718843877, -0.1477362067, 0.1216750443, -0.1025866494, -0.1471700966, -0.1377457827, -0.0965791047, -0.0076755523, 0.0786422268, 0.0631183386, 0.1515100747, 0.1214016154, -0.0763394460, -0.1675449163, 0.0391071737, 0.0939717293, 0.1461886019, -0.0388969891, -0.0254049823, 0.1491605043, 0.0574213713, -0.1649327725, 0.0949632749, 0.1062148586, 0.0134537378, -0.1398407817, 0.0817639381, -0.1710380763, 0.0749621764, 0.1467720568, 0.1328047961, 0.1151673794, 0.0854803622, -0.1084348187, -0.0877011865, 0.1583359092, -0.0451016575, -0.0977655575, 0.0592798367, -0.1537827253};

#endif

#endif
