//Numpy array shape [1, 32, 32]
//Min -0.176277413964
//Max 0.176227420568
//Number of zeros 0

#ifndef W31_H_
#define W31_H_

#ifndef __SYNTHESIS__
mlp_9_weight_t w31[1024];
#else
mlp_9_weight_t w31[1024] = {-0.0652192309, 0.1148777679, -0.0149799166, 0.0702223778, -0.1160385534, 0.1387274712, 0.0595160685, 0.1644743085, -0.0004951411, 0.0929350406, -0.0698614120, 0.0769425258, 0.0787784234, -0.0654268712, -0.1392912269, 0.0943199694, -0.0197419208, 0.0073056505, -0.1712263525, -0.0816851854, -0.1754531562, 0.0297434106, -0.1300439984, 0.1054735854, -0.0160852596, -0.0680121779, 0.0014288835, 0.1602592319, -0.0991503298, -0.1551553309, -0.1453845799, 0.0727065802, -0.0312629305, -0.0740838498, -0.0916446149, 0.1652033776, -0.1231207177, -0.0475436449, 0.0032099881, -0.0951885059, -0.0897261724, 0.1111632809, -0.0940138772, -0.1340563148, -0.0493952632, -0.0361548923, 0.0096902978, -0.0958292484, 0.0511770844, -0.0988148004, -0.0564806126, 0.1430096924, -0.0109349368, 0.1416099370, -0.1689652950, -0.1164157689, -0.1114385873, 0.1098592579, -0.0574982874, 0.0797420889, -0.1481760889, 0.0103690093, -0.0940520614, -0.0585543625, 0.0268393438, -0.1638720036, 0.0055437223, -0.0198636837, -0.0132378191, -0.0757939219, 0.1342409104, 0.0931851864, 0.1339842230, 0.1021404639, 0.0043102740, 0.0921755955, 0.0901540443, 0.0063459454, -0.1422255337, 0.0467286743, 0.1562373936, -0.0592722073, -0.1580844223, -0.0308388900, 0.0378261842, -0.1057509482, -0.1524705142, 0.1095616370, 0.0289169736, -0.1337348372, -0.1067674085, -0.1042201146, 0.1242522970, 0.1269991994, 0.0322932526, 0.1435738951, 0.0867536366, 0.1536457241, -0.0305736605, 0.0256400555, -0.1141431853, 0.0695394948, -0.0009454802, 0.0854637995, -0.0504965596, -0.0899628922, -0.1337291598, 0.1157325283, 0.0491092317, 0.1258379519, 0.1668880284, 0.1605448872, -0.1678969413, 0.1115456596, -0.0269541740, -0.1312037706, 0.1424462348, 0.1103415415, -0.0902645364, -0.0610028431, -0.0890245512, -0.0068622231, 0.0179042127, -0.0206570346, -0.0549034774, -0.1198274940, -0.1335740089, 0.0351431593, -0.0467155650, -0.0077040857, -0.0948911831, 0.0536020435, -0.1206614971, 0.0333865397, -0.1511268318, 0.1575861722, -0.0599923916, -0.1748107672, 0.0331453979, -0.0821410269, 0.0514447391, 0.0952259377, 0.1663988531, 0.1762274206, 0.0021255286, 0.0528264605, -0.0356463492, -0.0993495211, -0.0866213366, -0.1658936739, -0.1129609719, -0.0522064790, 0.0594525337, 0.1365270168, -0.1081027687, -0.1538197249, -0.0845533013, -0.0946206674, 0.0673186556, 0.1329961419, 0.1109873578, 0.1570825279, 0.1347847134, 0.1540608704, -0.0075900783, 0.0436143167, 0.0873023272, -0.0153218126, -0.1114423946, -0.1136775091, -0.0142338965, 0.1204981133, -0.0111154094, -0.0993362442, -0.0359057859, -0.0681788474, -0.1486908346, 0.1562595218, 0.0230290592, 0.1748615801, -0.1563804150, -0.0754764304, -0.1323579550, 0.0780394375, 0.1642928571, 0.1621290892, -0.0144649874, -0.1485851854, 0.1062243208, -0.1066047847, -0.0519984625, 0.0009428461, -0.1647621691, 0.1016277000, -0.0997866243, -0.1247851402, -0.0474237390, 0.0935976580, 0.0095151141, -0.0358673036, -0.0601543412, -0.0832317844, -0.1698464006, -0.1523595750, -0.1644389331, 0.0567125678, -0.1144707948, 0.1562084556, -0.1282159090, -0.0800623819, -0.0182498172, 0.0349595472, -0.1147689223, -0.0844031945, -0.1145115122, 0.1084336787, -0.0760777369, 0.0879173353, 0.1539298594, 0.0289121047, -0.0818592906, -0.1213424578, -0.0500456095, 0.1741352230, 0.1520418823, 0.1484636664, -0.0360306650, 0.1161265746, 0.0984285027, 0.0089946007, 0.1406617314, 0.0847376511, -0.1217070743, 0.0238627866, 0.0258871838, 0.0445049629, -0.0001644359, -0.1008022577, -0.0752212256, 0.1045160666, -0.0761758983, 0.0532902628, -0.0156152174, -0.0373350680, -0.0856383517, -0.1120233685, -0.0851947144, 0.0332335271, 0.1359972805, 0.1664093435, -0.1044039577, -0.1321572959, 0.0602067932, 0.0359135196, -0.0367537364, 0.1113332808, -0.0254014619, -0.1131601334, -0.0782820582, -0.0870136246, -0.0745218024, -0.1604309678, 0.0997494683, -0.1728084236, 0.1122821942, -0.1412849426, 0.0970972553, 0.0033497682, 0.0250979848, 0.1626083702, 0.0431673713, 0.0755281448, 0.1468651444, 0.0239935685, -0.1248631999, -0.1009566635, -0.0897788554, 0.0087020388, -0.1420531422, -0.1346324980, -0.0468837097, 0.1315975487, 0.1546511799, -0.0261734873, 0.1557488143, -0.0825355425, -0.0971843749, -0.0155980848, -0.0893912539, -0.1722802967, 0.1063430086, -0.0775997043, 0.1315957159, 0.1292080134, -0.0910566002, 0.1165543497, 0.1519918442, 0.1336764395, -0.0162230376, -0.1417502612, -0.0964506194, -0.0157765336, 0.0481529012, -0.0102575524, -0.0014665417, -0.0078541497, -0.1030423418, 0.1225388646, -0.1028966159, 0.0230461694, 0.1124972701, 0.1315809190, -0.1076814234, 0.1383057088, 0.0407006852, -0.0059962743, 0.1110202968, 0.0775553212, -0.1544237584, -0.0880757198, -0.1669353992, -0.0361853465, -0.0143878590, 0.1373970360, 0.1684107333, 0.0328560583, -0.0609239414, 0.0719805136, 0.0223930627, 0.0212695338, -0.0983875617, 0.0234439094, 0.0502596088, 0.0040471298, 0.0163900871, 0.1030066013, -0.1590007395, 0.0899397284, -0.1000759378, 0.1580308229, 0.0708783567, -0.0052300026, 0.0324447714, -0.0924452320, -0.0437462144, 0.1500937343, 0.0009686399, 0.1115069017, -0.0760528892, 0.0823124126, -0.1631565392, 0.0159773435, 0.1287706941, -0.0365569964, 0.1173794121, -0.1311001033, -0.0177023299, -0.1149535030, 0.0890346467, -0.1306920052, -0.0400525928, -0.0895377994, 0.1198854223, -0.1431872398, 0.1414751858, -0.1369189173, -0.1200087667, -0.0000147303, -0.1222890988, -0.0416079387, 0.0045779906, -0.0553491600, 0.1275376827, 0.1127618253, 0.0272182021, 0.1390146762, -0.0764031112, 0.0721097589, -0.0098374113, -0.1002476886, 0.0533238538, -0.0666279495, -0.0912122875, -0.0111703053, 0.1567158699, 0.1630187780, 0.1746871322, 0.1618415117, -0.1644995660, -0.0753389224, -0.0070303050, -0.1140861660, 0.1106148213, -0.1377318799, 0.0350268558, 0.1594395489, 0.0860615671, 0.1216959283, -0.0680475831, -0.1480372995, -0.0129263122, 0.0797679275, -0.1080813557, -0.1736322790, -0.0140676061, 0.0383855365, 0.0414463058, -0.1104706153, 0.1049169078, 0.1267653108, 0.1129956320, -0.0703013241, -0.0901243091, 0.0108108353, 0.1003680378, 0.0354256481, -0.0586174354, 0.0339376964, -0.0709241852, 0.0431505330, 0.1559611261, -0.0370795727, 0.1754098088, -0.0620049872, 0.0605475493, -0.1426812261, -0.0121965809, 0.0404481404, 0.0651387125, 0.1583153605, -0.1012104675, 0.0972084627, -0.1176047102, 0.0434613228, -0.0401264541, -0.1585352868, -0.0127815371, 0.1665790975, 0.0313244238, -0.1112947389, -0.0318085216, 0.1475958824, 0.0482805222, -0.0665042698, -0.0275468007, 0.0992434993, 0.0087100044, -0.0011484806, 0.1305408478, 0.0786444172, 0.1450930685, -0.0330481455, -0.1293714345, 0.1061261818, 0.1364454925, -0.0820334479, 0.0268009063, 0.0041501578, -0.1459491253, -0.1109061241, 0.0587448440, 0.0166713335, -0.1195662469, 0.0694586560, 0.1366699785, 0.0603688695, 0.0989909992, 0.0161095783, 0.0203264132, 0.0783309937, 0.0846380144, -0.0853914917, 0.0822084770, -0.0384228788, -0.1473200470, 0.0787734315, 0.0428534597, 0.1022837386, 0.1233558357, -0.1446379125, -0.0695595816, 0.1638369709, -0.0077455789, -0.0406579487, 0.1223135442, 0.0529151559, -0.0060468502, -0.0742348880, 0.1369470805, 0.0835361928, -0.1252746284, 0.0242605899, -0.1198593155, -0.0775971115, 0.1142978072, 0.1555462331, -0.0505321734, -0.0918955728, -0.1346026361, -0.1288150698, 0.0451266281, -0.1486157924, 0.0803300142, 0.1005573422, 0.0113237835, 0.0710299984, 0.1057726592, -0.0906006098, 0.0359847881, 0.1675013453, 0.1548750252, -0.1389053017, 0.0112242745, 0.0591863766, -0.1366714239, 0.0921166986, -0.0281387959, 0.1511888504, 0.0912845507, -0.0358891562, -0.0171050243, 0.0957212225, -0.1105616987, 0.1636487097, 0.0960488096, 0.1506589204, -0.0904282779, 0.0268689953, -0.1271360070, 0.0279953275, 0.0910445452, 0.0091548013, 0.0014452154, -0.0333777517, -0.0033214877, 0.1615929157, -0.0942424983, -0.0703820363, -0.1240313649, 0.1211008728, 0.0003693539, 0.1019289270, -0.0634012297, -0.0556580089, 0.1625980288, 0.0482062362, -0.0380900018, 0.1413786560, -0.1688141674, 0.1376772970, 0.0566888601, -0.1382596344, -0.1518073380, 0.1459539682, 0.0780491754, 0.1632840782, -0.0323795676, 0.1406840980, -0.1250461340, 0.1162010059, -0.0440080315, -0.0513773225, 0.1579717547, 0.0714276731, -0.1315782815, -0.0511653237, -0.1421193630, 0.0599334724, -0.1277486980, 0.1049933583, 0.0273914263, 0.0676162317, 0.1654268652, 0.0546845458, 0.0360732749, -0.0978706256, 0.0779591948, -0.0551163405, 0.1613304466, 0.0320559032, -0.0406039581, -0.0618761443, 0.1167433560, 0.0294816140, 0.1141158342, -0.1654435694, -0.0704100206, -0.1296066791, 0.1360589564, -0.1762774140, 0.1107516140, 0.0115307029, 0.0460627116, 0.0320209190, 0.1352612525, -0.1397402734, -0.0181585066, 0.0865298361, -0.0018645766, -0.1426382363, -0.1000132263, 0.0788438767, 0.1250883490, 0.0375749245, -0.0988529846, -0.0029863149, 0.1536502987, 0.1282061636, 0.1660648882, 0.0468631014, -0.0766236261, -0.0693526193, 0.0128755253, -0.1226997599, -0.1607430130, -0.1715770811, -0.0423962735, 0.0710396320, -0.0956157073, 0.0623535439, 0.0676811188, 0.0396173187, -0.1389718503, 0.1635793298, 0.0963534042, -0.0776610076, -0.0448851511, 0.0889215246, -0.0594339892, 0.0499841608, -0.0356739350, 0.0019855802, -0.1273134947, -0.0011423271, -0.0221662074, 0.0493731163, 0.0233794879, 0.1394592673, 0.1231157035, -0.1446764171, 0.1514550596, 0.1133938804, -0.0269108471, -0.1665878445, -0.1616901457, 0.1228993461, 0.0440148376, 0.1437260807, 0.0830122009, -0.1204925701, -0.0856527016, -0.1489436477, -0.0756118670, -0.1136369184, 0.0528410636, 0.1425956786, -0.1570038497, -0.0619385876, -0.0396764316, -0.1384844333, -0.0459521376, -0.1065734476, -0.0929410458, -0.1059001908, -0.0154805789, 0.0794650540, 0.0984330550, -0.1298839599, -0.0691377968, 0.0148854237, -0.0657514408, -0.1531340033, 0.0265691206, 0.1558082700, 0.1341100484, 0.1230508387, 0.0467122570, -0.1548461467, -0.0575392991, -0.1741818786, 0.0796086118, 0.0580947921, -0.0364774242, -0.1417312324, 0.0292833559, 0.0381973088, -0.1721920073, -0.1321813166, -0.0345991887, -0.1115596071, -0.0434511676, 0.1115849838, -0.0521709062, -0.1451400071, 0.1524115801, -0.1051197350, -0.1146617606, 0.1399322599, 0.0307984930, 0.1740959138, -0.0146753425, -0.0369368233, -0.1533995420, 0.0210823808, 0.1668244749, 0.0897646323, 0.0655656382, -0.1400317699, 0.0002657780, -0.0375694670, 0.0265489947, 0.0748647079, 0.0271955691, -0.0667049512, 0.1462057978, 0.1365754008, 0.1576686651, -0.0105882576, 0.0295973495, -0.1429437101, 0.0221377797, 0.0081298742, -0.1401798427, 0.0622472912, 0.0063698851, -0.1388446540, -0.1600921303, 0.1723755300, 0.0300995093, -0.0387992077, -0.0487532802, 0.0005938280, 0.0515274927, -0.0520416014, -0.1374182850, 0.0158995613, 0.1449960321, 0.0156205492, -0.0295674466, 0.0886696354, -0.0971050486, -0.0071219322, -0.0858892724, 0.0929803699, -0.0324004740, 0.0828947797, -0.1619446874, 0.1067860574, 0.0998982713, 0.0573415644, 0.1201845184, -0.1294093281, -0.1530719995, -0.0698334053, -0.0107635465, -0.0938633904, -0.1277995259, -0.1032790840, 0.0612796210, 0.0287139732, -0.0565307029, -0.1737595201, -0.1438576430, 0.0355007946, -0.0953426585, 0.1609960645, -0.1386615634, -0.1183403581, -0.1660921723, -0.0414296985, 0.1725178659, -0.1150145307, -0.1756608188, -0.1500315219, -0.0564552806, 0.0578270778, -0.0131117366, 0.0034568845, 0.0276318323, -0.1616072655, -0.1423719078, 0.1210163087, -0.1593769491, 0.1213050336, 0.1294275969, -0.0203423649, 0.0237685461, -0.0273751356, -0.0764989555, 0.1729219854, -0.1734763831, 0.1107892469, 0.0956654176, -0.1434889883, 0.1664358526, 0.1752707213, 0.0062556039, -0.0380557813, -0.0484282859, 0.0296462830, -0.0075053633, 0.1612096280, 0.1012628153, -0.0978026912, -0.0828866437, 0.1199509203, -0.1486816406, 0.1227651238, 0.0282521918, 0.0494547524, -0.0319995731, -0.0577765629, 0.0480875075, -0.0767015964, 0.1372395605, -0.0584087260, -0.1370541751, -0.0574744977, 0.1393560618, 0.0422841832, 0.0878365561, -0.0478640459, 0.0855456889, -0.0391981713, 0.0911232755, -0.0246059205, 0.0883717611, -0.0769345164, 0.0008465616, 0.1386446059, 0.1467577070, 0.0391273648, 0.1430927217, -0.0224281717, 0.1053792760, -0.0678047314, -0.1375353485, 0.1594152451, 0.0326854065, -0.0011476587, 0.0408199169, -0.0374487378, -0.0894536674, -0.0117746284, -0.0339886285, 0.0862993822, -0.0448647700, -0.1266694665, -0.0542285368, 0.0387730338, -0.0595066696, 0.0102315051, 0.1466415077, 0.0767241418, 0.0249191131, 0.0622699447, -0.0509659275, -0.1509364545, -0.0060441317, -0.0113256797, 0.1213375926, 0.0804537386, -0.0118338652, -0.1653461456, -0.0763065517, -0.0635394305, -0.0476321131, 0.1591891050, -0.1746568531, 0.1499032229, -0.0547125936, -0.0170361344, -0.0430766903, -0.1638666987, 0.0419980921, 0.0273158569, 0.0122325532, 0.1170761660, -0.0756801441, -0.1368502676, 0.1107746661, -0.0573072992, -0.0956090465, -0.1125108823, -0.1124957129, 0.1400572807, 0.1261225939, 0.1132879630, -0.0895828530, 0.0964216590, 0.1675536931, 0.1725844145, -0.0792549551, 0.0749498680, 0.0733407810, 0.0428476222, 0.0204059649, 0.0674888417, 0.1450248808, 0.1424195468, 0.1378911287, -0.1051483154, -0.0102693532, -0.0711045787, 0.0050739325, 0.0382045805, -0.0899466425, -0.0148670059, 0.1291098297, -0.0988138765, -0.0371637642, 0.1405756623, 0.0195223987, 0.0231657829, -0.0270622168, -0.0041766260, -0.1524068564, 0.1073666736, 0.0448937491, 0.1481853276, 0.0172207803, -0.1631709784, -0.1486940831, -0.0723259300, 0.0026937525, 0.0604438074, -0.0580482222, 0.0293846559, 0.0844671950, -0.0475960150, 0.0434824824, -0.0702609271, -0.0957649052, 0.1126301140, 0.1178920865, -0.0740904287, -0.0583716147, 0.1762117147, -0.1452383101, 0.1355492771, 0.0868111029, -0.0169602074, 0.0372351371, 0.1436157376, -0.0332528725, -0.0228955373, -0.0604266301, 0.0639974996, 0.0709829181, -0.1592523754, 0.1167261600, 0.1621403992, 0.1732064784, -0.1565929055, -0.0266736858, -0.0607192554, -0.0902416483, -0.0066288561, -0.0516953841, -0.0631026998, 0.1666413397, 0.1420024484, 0.0085586971, -0.1518808901, 0.1086393371, -0.0180667937, -0.1688075215, 0.0224360730, -0.1560842097, -0.1064840332, -0.1353757977, 0.0277459659, 0.1355181038, -0.1092911586, 0.0186480209, -0.0432237647, -0.1117514372, -0.1340522915, 0.0848061144, -0.1208480150, -0.1724738330, 0.0121308528, -0.0883106887, -0.0584008433, -0.1533574313, -0.1330482364, -0.0623761564, -0.1111100093, -0.0130140828, -0.0320225209, -0.0117219025, 0.1552452445, 0.1340951473, 0.1606694460, 0.0881588534, -0.0602177531, 0.1333394349, -0.1554504484, -0.0891224593, 0.1650198549, 0.0855016038, -0.1747007221, -0.1744565368, -0.1190913990, 0.0307054743, -0.1049747765, -0.0232644491, 0.0459437296, -0.1602846682, 0.0077220402, 0.1639311761, -0.1262507141, 0.0145600075, -0.1265950352, -0.0086606080, -0.0894724280, -0.0761980861, -0.0321890637, -0.0875359252, -0.1208356023, 0.0362546965, 0.0359930508, -0.1313278228, -0.0200223662};

#endif

#endif
