//Numpy array shape [1, 32, 32]
//Min -0.176741138101
//Max 0.176053330302
//Number of zeros 0

#ifndef W9_H_
#define W9_H_

#ifndef __SYNTHESIS__
mlp_3_weight_t w9[1024];
#else
mlp_3_weight_t w9[1024] = {-0.1271321923, 0.0898814648, -0.1438558102, 0.0429499969, 0.0055730143, -0.1019079983, 0.1611805111, -0.1201988459, 0.1430026144, -0.0458883494, 0.1681426764, -0.0197853316, 0.0056022853, -0.0756439641, 0.1542635560, 0.0756016672, 0.0226408225, 0.1502069235, -0.0468574315, -0.1444883049, -0.1370473653, 0.1434502453, -0.1070478484, 0.1584335864, -0.1711083651, -0.1190044880, 0.0165214371, 0.0656039491, 0.1690133661, 0.0682637319, -0.0789654478, 0.0785010979, 0.1708545536, -0.0135370828, -0.1529836655, 0.0206957031, 0.1169314161, 0.0848983377, -0.1736645848, 0.0856373981, 0.0259752069, 0.0254994743, -0.1535609215, -0.0848737806, 0.0808572099, 0.1195833385, 0.1638856977, -0.1357827783, 0.0764196962, -0.0110809961, 0.0270807203, -0.0440937579, 0.0813587755, -0.0995959342, 0.1165743023, -0.1628854722, -0.1651130021, -0.0820216462, 0.0495566651, -0.0314041860, 0.0759884715, -0.0110370796, 0.1608565003, -0.1032699123, 0.1608038545, 0.0936978981, 0.0429059751, 0.1222336143, -0.1047549546, 0.0009946867, 0.1577657312, 0.0242292322, -0.0586586334, -0.0973525792, 0.1531008929, -0.1255925894, 0.0528017171, 0.0822398812, -0.0787048563, -0.0746022165, 0.0361792557, -0.0383264273, -0.0033961718, 0.0827800333, 0.1280895770, -0.1699916124, -0.0503064357, 0.1138802990, -0.0956897587, 0.1468469650, -0.0665642023, -0.0800057575, -0.1325677931, -0.1359466165, -0.0559736900, 0.0999940932, -0.1374621540, 0.0591572747, -0.1385584176, -0.0424786471, -0.1717292666, 0.1500661671, 0.0284617655, 0.1001488343, 0.1454128623, -0.0777100399, -0.0961483642, 0.1735455841, 0.1474101394, -0.0656175390, -0.0228715558, 0.0892192274, -0.0180203691, -0.1188669428, 0.1261121929, -0.0896404684, -0.1341950744, -0.0902333856, -0.0131826485, 0.1274339408, -0.1179987639, 0.0127150714, 0.0973244086, -0.1670032591, -0.1001706868, -0.1133647785, -0.1012931615, -0.1318880469, -0.1174820438, 0.1256786585, 0.0085511524, -0.0175733604, -0.1251702756, -0.0083717126, 0.0203589089, -0.1216021925, -0.1378701925, 0.0928614140, 0.1230865568, -0.0675326139, 0.0713581145, -0.1755869985, -0.0451659746, -0.0529114902, -0.0178056527, 0.0103760269, 0.0744298548, -0.1335927993, -0.1597696990, 0.0800495893, -0.1343252212, 0.1228674799, -0.0790096000, 0.0010671371, -0.0540683381, 0.0534026697, 0.1030543149, 0.0054846955, -0.0674976930, 0.1023165286, 0.1218817681, -0.0012342493, 0.0877377242, -0.0941159129, -0.0330431089, 0.0559632182, 0.0026341358, 0.0637522265, -0.1707373410, 0.0474955551, 0.1330476552, 0.1288767159, -0.0760006681, 0.1376329809, -0.0500898622, -0.1003479138, 0.0412267596, -0.0399058349, 0.0061105341, 0.1459023952, -0.0162673127, 0.0151253445, -0.0921605304, -0.1441894025, -0.0955387503, -0.1703244895, -0.1545368731, 0.1676604152, -0.1696357727, 0.0075972010, -0.0540618449, -0.1253893524, 0.0386478379, -0.1524457633, 0.1091440469, 0.0428688861, 0.1644744277, -0.1526023299, 0.0712661445, 0.1002940685, 0.0087655326, 0.0460550636, -0.1606621593, 0.0345050357, -0.0899359360, -0.1506454349, 0.0186348911, 0.0283283722, -0.0109486338, 0.1655349284, -0.0588360727, 0.0193082094, -0.1171892434, 0.1505334526, 0.1233169809, -0.0498720706, 0.0308437161, -0.0245239660, -0.0291401409, 0.1439563036, 0.0982662812, 0.1551035345, 0.1179177165, 0.0142076602, 0.1606213599, -0.0111205094, -0.0429236554, -0.0851230621, -0.1390776783, 0.0589851253, 0.0633786172, -0.1657638103, 0.1531395763, 0.0300788358, 0.0391203687, -0.1027749628, -0.1056871861, -0.0753666535, -0.0372147188, 0.1244028509, 0.1244658604, -0.0829195157, -0.1221323535, -0.0950862393, 0.0621773265, -0.1275901198, 0.1717115194, -0.0835827813, 0.1078093201, -0.0332159735, -0.0032022542, -0.1485673636, -0.0031747324, -0.1075734869, -0.0941214114, -0.1551359296, 0.0307577364, -0.1277180761, 0.1512253284, 0.0806859881, 0.1350686103, 0.1345902085, -0.1500103325, -0.1313180327, -0.0550577343, -0.0548738688, 0.1438921988, -0.1094601080, -0.1158176437, -0.1465883106, -0.1153009236, -0.0543398447, 0.0289092176, -0.0470470078, 0.0088138543, -0.1125974357, -0.0964775681, 0.0236825664, -0.0357765220, -0.0171024315, -0.0519199446, 0.1151603386, -0.1079050153, 0.0700722709, 0.1319760084, 0.1140094548, 0.0996760726, -0.0516138300, -0.0219440311, -0.1718471497, 0.1094239876, 0.0775047243, -0.1049144641, 0.0774393752, 0.0773202255, -0.0773049295, -0.0200765673, 0.0779665932, -0.1226659343, -0.0828424096, -0.0164918713, -0.0029845447, -0.0274016261, 0.1149744913, -0.0163944922, -0.0282709040, 0.0659650192, -0.0357625894, 0.1594703943, 0.1760533303, 0.1566497982, -0.1257560551, -0.1207619756, -0.0991543978, -0.0105428025, -0.0148908608, 0.0480360053, 0.1576842368, 0.1466801614, -0.1729007065, -0.0738772899, -0.1234703511, 0.0154886711, -0.1156827509, -0.0805397630, -0.1313739866, 0.0311811659, 0.1569904387, 0.0390140079, -0.0429056808, 0.1034096703, -0.0183164291, 0.0465405732, -0.0577709787, -0.0864687487, -0.1648889631, 0.0222693626, 0.1125087738, 0.0404041819, 0.1665615439, -0.0583088137, 0.1573176235, -0.0795488209, 0.1578588933, 0.0191421285, -0.0923282951, 0.1148052737, -0.0656248108, -0.0989364386, 0.1637718976, -0.0525964648, -0.0747485906, -0.1559102684, 0.0997544676, -0.0036883759, -0.0605341271, -0.0502266288, 0.0739706084, 0.1164410114, 0.1006635949, 0.1118927374, 0.1659708321, 0.0895257816, -0.0893769190, -0.0121457521, -0.0097158179, -0.0778116137, -0.0817429051, 0.0910580531, 0.1367981285, 0.0206716806, -0.1743020117, -0.1597971320, 0.0122799473, 0.1121749133, -0.1026983187, -0.0589173734, 0.0457620136, -0.1313391030, -0.0476242304, 0.1666010916, -0.0544286929, -0.1636350751, 0.0374196582, 0.0124641294, -0.0838163793, 0.1243748441, -0.0736320168, 0.1058682427, 0.1401483268, -0.0305663273, -0.1542717069, 0.1284937263, -0.0177746955, -0.0042566000, -0.0767183453, -0.1670891494, 0.1731427312, -0.1321171075, -0.1006922945, -0.1113138497, -0.1314253956, -0.1413654536, -0.1236511841, -0.0027298303, 0.1156685278, 0.0690163672, -0.0269485265, 0.0027677624, -0.1189891919, 0.0218245219, -0.0848316774, 0.0897671133, -0.0458533056, -0.0051132557, 0.0744811520, -0.0993339270, 0.0267536379, -0.0794292092, -0.1026133746, 0.1651116610, -0.0601493679, -0.0622200631, -0.1062100753, 0.0324161947, -0.0923514143, -0.1596505344, -0.0482023396, -0.0798900872, -0.0908428952, -0.1704948246, -0.1375151128, 0.1548857391, -0.0723690465, 0.0463263616, 0.0240799896, 0.0994838178, -0.0571831986, -0.1214936003, 0.1454504579, 0.0549976751, -0.0166247189, 0.0881931409, -0.0317367651, -0.1457780004, -0.1575298309, -0.0204654969, 0.1531347185, 0.1559226215, -0.0146499705, -0.0648655146, 0.1278114915, 0.1226200759, -0.1754972041, 0.1096910909, 0.0325669125, 0.1232610494, -0.1529845446, 0.0330780894, -0.0255122036, 0.1013164073, 0.0221742354, -0.0028283906, 0.0834620520, 0.1696272194, 0.1165005490, 0.0341069140, -0.0537067577, -0.0702470168, -0.0878621042, 0.0145223076, -0.0569385774, -0.1230960861, 0.1417187601, -0.0987666100, -0.0767048150, 0.0225554127, -0.0976315513, 0.1103074923, -0.0330403894, -0.0393399745, 0.0815701261, 0.0786175877, 0.1041687801, -0.1142865941, 0.0136139374, -0.0362783857, -0.0979715884, 0.1465118825, -0.1343750209, 0.1325349808, 0.0780618414, 0.0467661843, -0.1639942080, -0.0524320900, -0.0768536180, -0.0992847607, -0.1501602829, -0.1713136435, -0.0505342595, -0.1366829425, -0.0744171962, -0.1165650487, -0.0210108142, -0.0460230708, 0.1564038992, -0.0785175785, -0.0828772485, -0.0754260644, -0.1046511903, -0.0481697805, 0.0150827337, -0.0729225427, -0.0020734353, -0.0390378423, 0.0033219724, 0.1284735650, -0.0590926409, -0.1682332158, 0.0885971636, 0.0367874354, 0.0643608272, 0.1423008442, -0.0595674254, 0.0095919697, -0.0066173291, -0.0772073343, -0.0253334157, -0.0938943923, -0.0911972895, -0.1757653952, -0.0866757929, 0.1449274421, -0.0335613228, 0.0198435374, -0.0289618168, 0.1257607788, 0.0884680226, -0.0376380421, -0.1069648191, -0.0518048629, 0.0269751418, 0.0914909840, 0.0724200457, -0.0302905180, 0.0528865382, 0.1684454381, -0.1282211393, -0.1069986671, 0.1295777708, -0.0031427220, 0.0938515887, 0.0516575985, -0.0942715853, -0.0733507723, 0.1299252659, 0.0193426013, -0.0735499337, -0.0705229118, 0.0895888582, -0.1568530947, 0.0785684064, 0.1035778821, 0.1263617277, 0.0491971709, 0.0246468447, -0.1479133517, -0.0103644999, 0.0525035076, -0.1656383723, -0.1233228743, 0.1565123796, -0.0641258806, 0.0458805747, 0.0517005473, -0.1676848233, -0.1276787817, -0.1559891552, -0.0615801476, -0.1548969299, 0.0516779572, 0.1213809401, 0.1013709679, 0.1457067877, 0.0679403991, -0.0516525432, -0.0479306392, 0.1505405158, -0.0878228843, -0.1657642871, -0.1448641270, -0.1334878951, 0.1613816321, 0.0998539552, -0.0651950166, 0.0577431209, 0.0974807888, 0.0046247947, 0.0197656080, -0.1642568856, -0.0602969863, -0.0479263812, 0.0894486979, -0.1541563720, -0.1449270397, 0.0161272604, -0.1176837385, -0.0107578989, 0.0400853194, -0.1503869891, -0.1081219837, -0.0216581263, 0.1592231989, -0.1188354418, 0.0327368490, 0.1244164184, 0.1505263150, -0.0862318426, -0.0406729095, -0.1054488644, 0.0115787927, 0.1421823055, -0.0564260930, -0.1214824691, 0.0480887517, -0.0096522393, -0.1617695540, 0.1719857752, 0.0343952626, 0.1095654070, -0.0283904336, -0.0165369697, -0.0881288275, 0.0975403264, 0.0014391041, -0.0021441155, 0.0266153347, -0.0551333874, -0.0823785663, -0.0347958282, -0.1305176765, -0.0059634205, -0.1432048678, 0.1652875692, -0.1600642651, -0.1099008769, 0.1401252896, -0.0351603329, 0.1556387246, -0.1373448223, 0.0165509619, -0.0009234585, 0.0876715332, -0.0846536309, -0.0745270029, -0.0181959532, -0.0977365822, -0.1360080391, -0.1312776953, 0.0791268498, -0.0702958032, -0.1392570138, -0.1767411381, 0.1522548199, -0.0551975779, 0.1013919115, 0.0003380599, -0.0336996913, 0.1139142662, 0.1119716987, -0.0456678793, -0.0991249382, 0.1198353767, -0.1120418310, 0.1311126947, -0.1570527256, 0.1720759720, -0.1048881412, -0.0658839345, 0.1021815985, 0.1743132770, 0.0417347141, -0.0254848283, 0.0124744345, -0.0273259729, -0.0976117849, -0.0206249822, 0.0289277006, -0.0088254232, 0.0447567478, 0.0642968714, 0.1593188494, -0.0849432871, 0.1284541488, 0.1008788347, 0.1742944270, -0.0478119105, 0.1739077717, 0.0870098695, -0.1348493844, -0.0076626763, 0.1557352096, -0.1151130497, 0.1138836518, 0.0076679448, -0.1238743514, -0.1672723740, 0.0220472049, -0.1007905826, -0.0339857228, -0.0793270022, 0.0980686992, -0.1196149886, 0.0096308077, 0.1710966527, 0.0005658425, -0.0352046713, 0.1643312126, -0.0611372069, -0.1739715636, 0.0821017623, -0.0158594158, -0.0191156603, -0.0985979959, -0.0805149972, -0.1168528274, -0.1159798875, 0.1489164084, 0.1084480509, -0.0475474596, -0.0169570260, 0.0355320275, -0.0628977418, -0.0860119164, -0.1582035273, -0.0165902004, -0.1261072606, -0.0374196582, -0.0125535019, -0.0416746363, 0.0294156764, 0.1165337339, 0.1137233227, 0.0631308183, 0.0458634607, -0.1736518145, 0.1438423842, -0.1104073524, 0.0930022448, 0.0323802233, -0.0047915909, 0.1441863030, 0.0283433553, 0.0405224450, -0.1357556731, 0.0447133183, -0.0846464410, -0.0330174603, 0.0618668534, -0.0627010018, 0.0254918467, -0.1086364910, 0.0877402723, 0.0906241536, -0.1177614331, -0.1762574911, 0.0862728506, -0.0006327506, 0.1091890186, 0.0727307945, -0.0966155156, 0.0509041622, 0.0757095814, 0.1501953900, 0.1676712483, -0.1709260345, -0.1061119810, -0.1295241565, 0.0878450498, 0.1147695780, -0.0921821967, 0.0863005146, -0.0892314538, 0.0423352234, -0.0374259576, -0.0649482310, 0.1753494143, -0.1413054764, -0.0406749099, 0.0114919487, 0.1468587965, -0.0844216123, -0.1187008843, 0.0014782164, 0.1269079149, -0.0251851436, 0.0424569026, -0.0054332553, 0.1279418617, -0.0523381233, 0.0976717174, 0.0248947311, 0.0962951183, -0.0557633340, 0.1359135360, -0.1339610368, 0.0539167747, 0.0307715181, -0.1423718631, -0.1629859656, -0.1644155234, -0.1760523915, -0.0871724337, -0.1494832635, 0.1561054289, -0.0619083047, 0.1594830155, 0.0422184132, 0.0818103850, -0.0357405916, -0.0603461526, 0.0419689678, -0.1540432721, -0.1568459123, 0.1327340603, -0.0925306827, -0.0018407636, 0.1315020174, 0.0995287672, 0.0039215111, 0.1258274615, -0.1651447266, 0.0380432196, 0.0197123755, 0.0143337846, 0.1658065915, 0.1220219284, -0.1447086036, 0.0454897657, -0.1029877812, -0.0674644411, -0.1395055801, 0.0789412335, 0.0169427805, 0.0379071683, -0.0113396728, 0.0809271932, -0.1319914907, -0.0636226907, -0.0496459529, 0.0165519305, -0.1419024169, -0.0360595770, 0.0905158743, 0.0623524264, 0.1366443783, -0.0290910602, 0.0311708190, 0.0992407203, -0.1652575582, -0.0386665314, 0.0438873246, 0.0825522915, 0.1299383789, -0.0159170106, -0.1337974817, -0.1666722447, 0.1295572221, -0.0565032661, -0.0719494298, -0.0173163060, -0.0437548570, 0.1674297154, 0.0177138988, -0.0591776110, 0.1077604890, 0.0071986816, -0.1616790444, 0.1302858144, 0.1330812573, -0.0436998755, -0.0192681905, -0.0049610003, 0.1204958782, -0.0113602402, 0.0869136676, 0.0551842377, -0.0410397761, 0.0563806407, 0.0314617567, 0.0883387998, 0.0134167532, 0.0970712304, 0.1535318047, -0.0618865974, -0.0996372551, 0.0308547374, 0.1328949779, -0.1712107807, -0.1098864228, 0.1695556939, -0.0000530418, 0.1354111433, 0.1718385518, -0.0238270462, 0.0716082305, 0.0045036436, -0.0477157123, 0.0251814350, -0.0582976677, -0.1395083070, 0.0561669767, 0.1197104082, -0.0206451695, 0.0532008074, -0.0808085129, 0.1036759987, 0.0549959242, -0.1010986790, -0.0720432103, -0.1393781155, -0.0639208183, -0.1189905182, -0.0179338846, 0.0985308364, -0.1540431082, 0.0988242254, 0.1130194664, 0.1016205177, 0.0369670205, 0.1109772027, -0.0209858213, 0.0380681716, -0.1651002616, -0.0454281271, 0.0053240322, 0.0423105657, 0.0028330691, 0.0667791516, -0.0310319867, -0.0010296686, -0.1591616273, -0.0916282609, -0.0430306867, 0.0914130136, 0.1503219604, 0.1361349076, 0.1713585705, 0.1087487713, 0.0010597403, 0.0283908118, 0.0816888735, -0.0452089421, -0.0777281672, -0.1134846881, -0.0910142660, 0.1227554157, 0.0087034507, -0.0208645649, -0.0725549310, -0.0577753820, -0.1220277697, 0.0396841243, 0.0296394546, -0.0505150184, -0.0502777956, 0.0270967148, 0.1744902432, -0.1291958094, 0.0171582140, -0.0178120788, 0.1469220966, -0.0673986077, -0.0994993523, -0.0579803847, -0.1094989851, -0.0680371895, -0.0105411792, 0.0951003805, -0.0182063431, -0.0559926778, -0.1444541514, -0.1171359122, 0.1654669046, -0.0158623029, 0.1078265980, -0.1071883291, 0.1124229208, -0.0521330573, -0.1390521228, 0.0690607727, -0.1110562086, 0.0889578983, -0.0471904352, 0.0988674015, 0.1355820894, 0.0103011951, -0.0879366398, 0.0249198079, 0.1725134403, -0.0797627419, 0.1116108373, -0.0715741143, 0.0174011681, -0.1711605787, -0.0333358161, 0.1270252317, -0.1331715286, -0.0301804524, 0.1299412400, 0.1590886712, 0.1116730645, 0.0110463090, -0.1277171969, -0.1729313433, 0.1526952088, 0.1131359190, -0.0840846077, -0.1382849216, 0.0833532736, 0.1360888034, 0.1661283374, 0.0455155820, 0.1328938603};

#endif

#endif
