//Numpy array shape [1, 32, 32]
//Min -0.176688835025
//Max 0.176767691970
//Number of zeros 0

#ifndef W30_H_
#define W30_H_

#ifndef __SYNTHESIS__
mlp_6_weight_t w30[1024];
#else
mlp_6_weight_t w30[1024] = {-0.0756430104, -0.1341490895, 0.0530580543, 0.0403004140, -0.0877959728, -0.1155525148, -0.0395688526, -0.1412473619, -0.1511864513, 0.1580455154, -0.0671882257, 0.0465872698, -0.1354118139, -0.0845950246, 0.1257432401, -0.1568225175, 0.0051073972, 0.0540573783, 0.1232203171, -0.0353352837, 0.0098472741, -0.0600639358, -0.0660116151, 0.1276253760, -0.1754659712, -0.1645967364, 0.1659968346, 0.0192518998, 0.1511997283, 0.0923769549, 0.0919020474, 0.1379980296, -0.0618217140, -0.1244043633, 0.0158323999, 0.1669515520, -0.0270759985, 0.1418913603, -0.0511307418, 0.0749842599, -0.0263855066, 0.1591551751, -0.0811369568, 0.0549088307, 0.1743991822, -0.0172709767, -0.0853431076, -0.0041458169, 0.0642550364, -0.1252347827, -0.0198918786, 0.0764882043, -0.1724089235, -0.0769160390, 0.0918767974, 0.0013983271, -0.1699379832, 0.0289163403, -0.1320403069, -0.1635963470, -0.1574648619, -0.1216983497, -0.1042977497, -0.1403539330, 0.1717775762, 0.1056924909, -0.0107168267, -0.1207263544, -0.0706630275, 0.0725795254, -0.0615053177, -0.0704604462, 0.1368501186, 0.0297931861, 0.0971756876, -0.0390252843, 0.1424079984, -0.0145672783, -0.0213167593, -0.1025631130, -0.0308418404, -0.1212569252, -0.0167561751, -0.1362992972, 0.0778794959, 0.0926766172, -0.1533119380, 0.1518146992, 0.0641186982, 0.1307436079, 0.1429189295, -0.0172912925, 0.1532727629, -0.0950635001, 0.0036470720, -0.0836548954, 0.0689871162, 0.1486174315, -0.0790752843, 0.1718611270, -0.0828549266, 0.1372206956, -0.1619269103, 0.1063043997, 0.0156696290, 0.0748227686, 0.0560611449, -0.1403836459, 0.1658882648, -0.0209843256, 0.1465866566, 0.1699950695, -0.0006212656, -0.0489601791, -0.0937928185, -0.0559961535, -0.1277485490, -0.0817100331, -0.0045056036, 0.0028259039, 0.0913324058, 0.1554144919, -0.0273013581, 0.1594710499, 0.0555227399, 0.1728481054, -0.0094094314, -0.1236073896, 0.1587013900, 0.1560703814, -0.1529570818, 0.0541428737, -0.1255465001, 0.0492782220, -0.0508570224, -0.0844692588, -0.0108935479, -0.0193082299, -0.1537673175, 0.1341405362, -0.1267838776, -0.1413265765, 0.1473605484, -0.0817302391, -0.1280668825, 0.1393154711, -0.1761246324, 0.0567507297, 0.1472582221, -0.0438583456, -0.1766888350, 0.0066143367, -0.0222628508, 0.1506144106, -0.1371154487, 0.1161583364, -0.0186237022, 0.0109481914, -0.0521561131, 0.0095808217, -0.1212136373, 0.0596531741, 0.0983514637, 0.0173284244, 0.0685738102, 0.0470128059, -0.0142014651, 0.0976538658, -0.1119432747, -0.0553236790, -0.1409437805, 0.0068688192, -0.0930071771, -0.1235416010, 0.0715668648, -0.1743679345, 0.1767676920, 0.0824891180, 0.1006130576, 0.0365753509, -0.0492207333, 0.0794981197, 0.1171121150, 0.1425832957, 0.1178317741, 0.1751752645, -0.0532696545, 0.0409116484, -0.1295971125, -0.0476972312, 0.0279701650, -0.0944938436, 0.0115769170, 0.1204962134, 0.1123769656, 0.0372572020, 0.1041314974, 0.0429913029, 0.0752377957, -0.1052155420, -0.1700900495, -0.1714513898, 0.1406394839, -0.0642958358, -0.1434090585, -0.1177951321, 0.1192687079, 0.0080355918, -0.0339952260, -0.1519966424, 0.0290890597, 0.0659273192, -0.0563842021, -0.0179545563, -0.1736249775, 0.1715057045, 0.0861771926, -0.0953731537, 0.0470552482, -0.0918053612, 0.1196493134, -0.0903911889, 0.1654558778, 0.1002887189, -0.0156000657, -0.0488044061, -0.1425876915, 0.1708924174, -0.0019627155, -0.0622929558, 0.1323947906, 0.1648734063, -0.1693262905, 0.1611031890, 0.0756871849, 0.1418039352, 0.1518850327, -0.1080540866, -0.1557556391, -0.0215354171, -0.1539043188, 0.1690483093, -0.1144756824, -0.1596005708, -0.0510636047, -0.0346294716, -0.1535480618, 0.0402652659, 0.0510055050, -0.0779478326, 0.1338780522, -0.0734772757, 0.1395552307, 0.1270481497, 0.0643462241, 0.1162207127, 0.1686394364, -0.1733017862, 0.0676068738, 0.1453780532, -0.1264746338, 0.0166463405, 0.0520160794, 0.1100571975, -0.0005876746, 0.1061692610, -0.0816513374, 0.1329083741, 0.0491092131, 0.0603157431, -0.0488421693, -0.0019572575, 0.0921654850, -0.0667935461, 0.1496731788, 0.0825981721, -0.1154381111, 0.1692627668, 0.1379542351, 0.0022598929, 0.0642659962, -0.1036492363, -0.0014258489, 0.0634124577, -0.1014396250, 0.1142932326, -0.0822563171, -0.0687915161, -0.0797423199, -0.1330074221, -0.0081355432, 0.0086079454, 0.0130164642, 0.1455383301, 0.1123746634, 0.0948346257, 0.1193542853, 0.0413743816, -0.0042571686, -0.0893225968, -0.0236471631, -0.0121025303, -0.0532867871, -0.1572588235, -0.0936453044, -0.1733564585, 0.0583695062, -0.1506039053, 0.1600081474, -0.0133759556, -0.1577851176, 0.0534608327, 0.1380781680, -0.0554718263, -0.1670676172, 0.0453182496, 0.0726443455, 0.1245088279, 0.1529824734, 0.1105814204, -0.0904914290, -0.1541474015, -0.0594064444, -0.0744495615, -0.0350860506, -0.0192109551, -0.0431111269, -0.1162927002, -0.0294973776, -0.1766275167, -0.0828939974, 0.0648378059, -0.1331334561, 0.1091579571, -0.1719420701, 0.0908157527, -0.0260180719, -0.0330472589, -0.1003660411, 0.1019698903, 0.1290933043, 0.1156573743, -0.1304428428, -0.1080489010, -0.1671860665, -0.0385838151, 0.1215852723, 0.0428182893, -0.1497646272, 0.0544900373, 0.1082196608, 0.0715961158, 0.1101890951, -0.1726902127, 0.1584667265, 0.0646912381, 0.1736717373, 0.0127625922, 0.1299663335, 0.0938185006, 0.1607852876, -0.1657215506, -0.0608438216, -0.0248216484, -0.1381430328, 0.1331075281, -0.0327406824, -0.0029213245, 0.1398862749, -0.0399643146, -0.0279674251, -0.1390825808, -0.0600493960, 0.0303487442, -0.0162333008, -0.1627366096, -0.0660926178, -0.1074962765, 0.1640185416, 0.1521526724, 0.1095585823, 0.0377147906, -0.0579738952, -0.0947611630, -0.1708911359, -0.0118059646, 0.1088649109, 0.1304065585, -0.1301774234, -0.0166338217, 0.0048336321, 0.1332336813, 0.0846472830, -0.1763582975, -0.0266694725, -0.0423460118, -0.1462590396, -0.0443735905, 0.1162998453, 0.1160280183, 0.0288057905, -0.1636855304, -0.1585274041, -0.1051243320, -0.1071775556, -0.1708921343, 0.0018136842, -0.1038796753, 0.0207489990, -0.0724833682, 0.0460972302, 0.1591019481, -0.1490910202, 0.1754700541, -0.0708956942, 0.1323105395, -0.0449646600, -0.0284500923, 0.0161403250, -0.0647319555, 0.0976443663, 0.0199550148, 0.1469902694, 0.0976571143, -0.1084697172, -0.1508775651, 0.0356813744, -0.0619408190, 0.0426801331, 0.1275551617, -0.1054352075, 0.0434821248, 0.1438017786, 0.0439510085, 0.0615790933, -0.1286858320, 0.0411037765, -0.1623551399, 0.0543107651, 0.1254223585, 0.0113507779, 0.1130596176, -0.1490645707, 0.1541879475, 0.1715928614, 0.0796071365, -0.1137312651, 0.1057510525, 0.1297731996, 0.1189618558, 0.1192670465, -0.0862968117, -0.1677855700, 0.0885610431, -0.0126215266, 0.0478322692, -0.1144134775, -0.1211089268, -0.0508234315, 0.1694850624, 0.1319863498, 0.0281344112, -0.1069585830, -0.0008977068, 0.1745321155, -0.1185138151, -0.1605557352, -0.1078174934, 0.0323919803, 0.1227012947, -0.0994055718, 0.1319854259, 0.0132936845, -0.1762289703, -0.0346045420, -0.0350503735, 0.1365402192, -0.0122085931, -0.0548879877, -0.0526343323, 0.0429359861, 0.0428325981, -0.0579831265, -0.1208773479, 0.1153214052, -0.1726275235, -0.0603296086, 0.0804539248, -0.1504604518, -0.1052597687, -0.0635645464, -0.1198560447, 0.0376517177, -0.1420281082, 0.1733841002, 0.1755689383, 0.1588668376, 0.0967164338, 0.1538304538, 0.0909323916, -0.1363739669, -0.0673698410, 0.1663584709, -0.0832975730, -0.1079875752, -0.0053694453, 0.0820934176, 0.0626351461, 0.0762175769, 0.0949976891, -0.0052558593, -0.1626944244, 0.0223866142, -0.1196351796, -0.1028843746, 0.1335796118, -0.0182817224, -0.0487812236, -0.0692634955, -0.0935158283, 0.0341798924, -0.0771326497, 0.0613769591, 0.1294943541, -0.1676992327, -0.1080253869, 0.0889341682, 0.1051392704, 0.0295027941, 0.0410600267, 0.0422515832, -0.0513728335, -0.0819396675, -0.0192216188, 0.0058674943, 0.0479955673, -0.1449016780, 0.1121934950, 0.0618385077, -0.1643861085, -0.1583172530, -0.0504047424, -0.0834560245, 0.0849966854, -0.1653651148, 0.0526475236, -0.0844464377, 0.1237547547, 0.1302091926, -0.1450007260, -0.1095849052, 0.0324760415, -0.0185928289, 0.1592799723, -0.0130698429, 0.0991275981, -0.0254304390, 0.1198861822, 0.0853006020, 0.0074770614, 0.1445854306, 0.0526021123, 0.1541219652, -0.0853921250, -0.1455271840, 0.0573348850, 0.0221034288, 0.1087227687, 0.0162139758, 0.0909244940, -0.0893283486, -0.1311144233, 0.0266159456, 0.1656531245, -0.0972948372, 0.1185800731, -0.0853035375, 0.0627272800, -0.0758978724, -0.1699103862, -0.0794926211, -0.1738473624, -0.1723164171, -0.0119596953, -0.1700043678, -0.0010668421, 0.1169109493, 0.1698354930, -0.0994804502, 0.0464212559, 0.0351288281, 0.0533787720, 0.0930197388, -0.0025278204, -0.1570699811, -0.1404182464, 0.0868967250, 0.0128445467, 0.0640171394, 0.0620415732, 0.0191040915, -0.1335951388, 0.1502108127, 0.0059695109, 0.1607551575, 0.1558559090, 0.1352397799, -0.0862541124, 0.0059882663, -0.0221482534, 0.1307232082, 0.0991789922, 0.0340589955, 0.0919747725, 0.0579302311, -0.1415516585, -0.1477299631, 0.0917372704, -0.0734250322, 0.0026367700, -0.0606781840, 0.0181853957, 0.1489158720, -0.1404684037, -0.1146701276, -0.0256335661, -0.0202168319, 0.1629812419, -0.1246988475, -0.0226549208, -0.0914632753, 0.0658604577, -0.1098660603, -0.0583456717, 0.1575223505, -0.0464565121, 0.1405534148, -0.0759056956, -0.1161485389, 0.0415623970, 0.0176585186, 0.0879170597, 0.0028770070, -0.1346686780, -0.1735176593, -0.0689263642, -0.0188546237, -0.1240671501, -0.0468337238, 0.0471358337, 0.0193839669, 0.0124303699, 0.1273626536, -0.0513164625, 0.1189503074, 0.1339040995, -0.1184799522, 0.0467208959, 0.0897384137, -0.0406954773, -0.1277373880, -0.1050313339, 0.0078702914, -0.0292735770, -0.0382370129, -0.1666022092, 0.0392980352, 0.0284086820, 0.0004671557, -0.0654969215, -0.1026884764, -0.1103425995, -0.1480861902, 0.0285188332, -0.1316155642, -0.0244330969, 0.0185398925, -0.0817375928, 0.1318797618, -0.0879363194, -0.0349598825, 0.0346486270, -0.0171556417, -0.1454843879, 0.0857018605, -0.0246792976, 0.1127874702, -0.0319331475, -0.1441442072, -0.0836920887, -0.1046006382, -0.0419039540, -0.1193240508, -0.1383262426, 0.0213374738, 0.0025110038, 0.0164110549, 0.0130815180, -0.0226390325, 0.0525114536, -0.1738945246, -0.0697645620, -0.0956101418, -0.0363717824, 0.1449932009, -0.0903751701, 0.1713242233, -0.0518587455, 0.1571263969, -0.0497075506, 0.1671749204, -0.0238263719, 0.1124930754, 0.1341764331, 0.1366080046, 0.0689904317, -0.0921439901, 0.0233799312, 0.0349946544, -0.1627197862, -0.0295950733, -0.1271096021, 0.1150338799, -0.1643125564, -0.1383053660, -0.1428379864, -0.0597625226, 0.0521515198, 0.1018914133, 0.1724025309, 0.0454330370, 0.0933655277, 0.1545781642, -0.1697433591, 0.1749429256, -0.1537181884, -0.0837055370, -0.1630892456, 0.1598223448, -0.0247042067, -0.0323176123, -0.1397570223, 0.1210391521, 0.0497785248, 0.0802774355, -0.1153955013, 0.1428951770, -0.1531016976, 0.1380533278, 0.1176079735, -0.1529958844, -0.0998243243, 0.1427243203, 0.0082888100, -0.0988767594, -0.1079211980, -0.1621884853, -0.1294941902, 0.1446872652, 0.1349629909, 0.1278995872, -0.0236702804, 0.1255485713, 0.0105791539, 0.1279107928, 0.0715163946, -0.1547302902, -0.1084168628, 0.0065129525, -0.1089635119, -0.1673305482, 0.0319270156, -0.1574822664, -0.0541997924, -0.0700926557, 0.1230793297, 0.1030900925, 0.0221344717, -0.0241752416, -0.1486690193, 0.0967170894, -0.0914905220, -0.1180693358, -0.0911297873, -0.1262650043, 0.1230641156, -0.0925198123, 0.1537014991, 0.0976457745, 0.0932775065, -0.0115190921, 0.1201568097, -0.0114343762, -0.0216247253, -0.0259845424, -0.0907609612, 0.1213253289, 0.1022810414, 0.1562151015, -0.1609303206, -0.1378773004, 0.0674124956, 0.0423561074, 0.1454892308, -0.0678930059, -0.0995918214, 0.1122699529, -0.0532784835, -0.0459033959, 0.1437585205, -0.1253821552, -0.0524606258, 0.0460115038, -0.1221053824, -0.0060963519, 0.0360474810, 0.0073864879, -0.1353116184, -0.0592596270, -0.1214358807, -0.0008877601, 0.1704292893, -0.1084872708, 0.1604574770, 0.1326025426, -0.0506726056, -0.0947853103, -0.0934122503, -0.0642858297, -0.0616815947, 0.0048091449, 0.1312593818, 0.0324131399, -0.0018601089, -0.1351694316, -0.1395816952, -0.0502358600, -0.1007474437, -0.1224826798, -0.0288615506, 0.0254712570, -0.1216798276, -0.0374328718, 0.0190459918, -0.0373003595, -0.1129020676, 0.1554656625, 0.1670684665, 0.0038315700, 0.1355781108, -0.1044311002, -0.0914933234, -0.0187035911, -0.0814916864, -0.1529514790, 0.0232905373, -0.0395427644, 0.0225125700, 0.1118936241, 0.0360442996, -0.1476295739, -0.0629386455, 0.1706658453, 0.0387557559, 0.1538210511, -0.1699964851, -0.0540897250, -0.0603062175, -0.0643908828, -0.0467351004, 0.0006590924, -0.1716479510, 0.0310065504, 0.0121325599, -0.0017014893, -0.1074365079, 0.0230863579, 0.1273646504, 0.1609714180, -0.1363355964, -0.1086102948, 0.1544411182, -0.0034915924, 0.1590783447, 0.0805521309, 0.1261134893, 0.0135209830, 0.0959417969, -0.0916785821, -0.0984294340, 0.1736980975, -0.0390340090, 0.1197251827, -0.0933820084, 0.0099947453, 0.1162276641, 0.0474565290, 0.0071211313, 0.0941115916, 0.1655395180, -0.0894479156, 0.1561984271, -0.0192813408, -0.0011827670, 0.0817778632, -0.0507594086, -0.0313637443, -0.0667930990, 0.1518850625, 0.1294231862, -0.1575490534, -0.1722277552, -0.1574876159, 0.1609559804, 0.0990779251, -0.1146923602, -0.0939063355, -0.1023994982, 0.0879796296, -0.1004967317, 0.0002693816, 0.1018629670, 0.0794030353, -0.0530043170, 0.0250508636, -0.0516396016, -0.0757229030, 0.1021395549, 0.1672278643, 0.0282865204, -0.0565211996, -0.1182874069, 0.0144915823, -0.0063332594, -0.1599719226, -0.0190306287, -0.0322695225, 0.0027857802, -0.1601688266, 0.1025369614, -0.1626699269, 0.0498701297, -0.1700081229, 0.0457351021, -0.0150249721, -0.0628750250, -0.1707044840, 0.1165142655, -0.1426174045, 0.0703805611, 0.0757296458, -0.0626892671, 0.1047009677, -0.0612590313, -0.1022058949, -0.1313964427, -0.0939704850, -0.0754095837, -0.1291464269, 0.0570753887, -0.0879717693, 0.1142277345, -0.0124978051, -0.1452760398, 0.1060546637, -0.1491945088, -0.0240882728, 0.1080516204, 0.0171837974, 0.0204950646, 0.1246163622, -0.0061595719, -0.1165110394, -0.1595687717, 0.1724998355, 0.0497735292, 0.1086994633, -0.1578182578, -0.0368406847, -0.0831567422, -0.1642967314, -0.0376053154, 0.0810569227, -0.1562070847, -0.0359424539, 0.0752106309, 0.1430407912, 0.0362928621, -0.1613292247, -0.0925520137, -0.1172396094, -0.0172533393, -0.1071168706, -0.0889413580, -0.0253969319, -0.1033553481, 0.0608891919, 0.0891507193, -0.1037197262, 0.0899616852, -0.0446648896, -0.0100017209, 0.1492795795, 0.0319984555, 0.0271042790, -0.0148641188, -0.1655975133, 0.1214748025, -0.0035562878, -0.1417891979, 0.0389393270, 0.0143753840, 0.1415551156, -0.1648141295, 0.0245018601, -0.1752500236, -0.1668881774, -0.0723227262, 0.1012714803, -0.1287271976, 0.1109162122, 0.0852980316, 0.1099845842, -0.1247594953};

#endif

#endif
