//Numpy array shape [1, 32, 32]
//Min -0.176500737667
//Max 0.176586270332
//Number of zeros 0

#ifndef W32_H_
#define W32_H_

#ifndef __SYNTHESIS__
mlp_12_weight_t w32[1024];
#else
mlp_12_weight_t w32[1024] = {0.1494226754, 0.0729098916, 0.0466813222, 0.0188394096, 0.1740290523, -0.0589439906, 0.0884248838, 0.1092183739, -0.1155842766, -0.1643456519, -0.0742472336, 0.1754322350, 0.1313233376, -0.0361267179, -0.0475423411, 0.0063236286, -0.0312688947, 0.0729991645, 0.1650441885, -0.0285720862, 0.0736216083, 0.0652945712, -0.1659090221, 0.0464736000, 0.0877697542, -0.0068011102, 0.0121335713, -0.0452594757, 0.1337419301, 0.1256513447, 0.0296986084, 0.0330694281, 0.1708562225, -0.1295798272, 0.0018479285, -0.0587811135, 0.0630479977, 0.1612292081, -0.0832811147, 0.1100005955, -0.0014732010, -0.1460432559, 0.0154908421, 0.0916194916, -0.0588784106, -0.1078385040, -0.1104068533, -0.0488569848, -0.1550933868, 0.0534789748, 0.0312999971, 0.1066547707, 0.1186500564, -0.1538552791, 0.1689318120, 0.1617525369, 0.0243667364, 0.1527495384, 0.1420907676, -0.1093951985, 0.1294518560, -0.0492287837, 0.0202633403, 0.0000797208, 0.1721213162, -0.0664005429, -0.0191364177, -0.0526740775, -0.0394939780, 0.1118607894, 0.0093803499, 0.0259959009, -0.1713162512, -0.1714680642, -0.1494174600, 0.1209891215, 0.0421875827, 0.0855953172, -0.1029592454, -0.0417299084, -0.0943394378, 0.1649394482, -0.1713619232, -0.0468196459, -0.1050833017, -0.0494786724, 0.1680699587, 0.0617338568, -0.1157048792, 0.0289642625, -0.1507224739, 0.0877026990, -0.0715153217, -0.0707481652, -0.1756750643, 0.1176672354, -0.0095136818, -0.1276060790, 0.0068993336, 0.0020555018, 0.0686914623, -0.0052941078, -0.0406331234, -0.0150457295, 0.0893268287, -0.0702675432, 0.0749421567, -0.0672813728, 0.1233526096, -0.1283115894, -0.1594380289, 0.1036726236, 0.0186953936, -0.1350638866, -0.0865686312, 0.0570682436, -0.1348342597, -0.1488106102, -0.0067617665, -0.0895437598, 0.0637809932, -0.0877421051, -0.0274485983, 0.1465237886, -0.0127310036, -0.0030203694, 0.0806961060, -0.0042115450, -0.0269268211, 0.0420289226, -0.1544965655, -0.0308275111, 0.1632494926, 0.1211698875, 0.1079827547, 0.1397252977, 0.0154786613, -0.1638717949, 0.0502844155, 0.1607793570, 0.1691844165, -0.0743332133, -0.1385573000, 0.1271717250, 0.1082512066, 0.0042747231, 0.1438303739, 0.0230213031, 0.1386718303, 0.0322736315, -0.0650148243, 0.0715825409, -0.1201042905, -0.1411750466, 0.0925405920, -0.1680259556, 0.1710833013, -0.1703812927, -0.1542062610, -0.0420067310, -0.1487825066, -0.1624578089, 0.0994588882, -0.0298275147, 0.0284698159, 0.0171821099, -0.1737986356, -0.1618505567, -0.0471560434, 0.0123529881, -0.1217414439, -0.0306453519, -0.0409270562, -0.0332818702, 0.1404756904, 0.1380114555, -0.1388985366, 0.1736403704, -0.1104834974, 0.0926736891, 0.0628055483, 0.1059365049, 0.0798857883, -0.1346713156, -0.1166837811, -0.0957587585, 0.0519816466, -0.0856682956, -0.0146432268, 0.1165662780, 0.0383543260, 0.0412762202, -0.1379666775, -0.0520903021, 0.0112527022, 0.1178975031, 0.0944313854, 0.0375595205, -0.0993672609, 0.1096816733, 0.0905867442, 0.0254692566, -0.0548587814, -0.0278073102, 0.0864780843, -0.1717868894, -0.1285030693, 0.1720925122, 0.1623435616, -0.0845163390, 0.1665068716, -0.0873609111, 0.1350122988, -0.1201560721, 0.0666892976, 0.1077149957, 0.0324639454, -0.0221548062, -0.0748287141, -0.0179654304, -0.0166629665, 0.0097747184, 0.0747366473, 0.1628204584, -0.0318550952, -0.1263710409, 0.1299664676, 0.1408263594, 0.0265558865, -0.1145330891, -0.0575386435, -0.1419019699, -0.1072212681, 0.1503683031, -0.0916116759, -0.0112719638, 0.1087086722, 0.1506125182, -0.1401092559, -0.0192289297, -0.1089551896, -0.0200500134, -0.1233191043, 0.0397069231, -0.0828444585, 0.0350952372, 0.1213011146, -0.0543889254, 0.0257354546, -0.1488709003, 0.0366815589, -0.1397248060, -0.1741987318, 0.1271577179, -0.0344256088, -0.1262800246, -0.1117506400, 0.0785635561, 0.1409153491, -0.1272880733, 0.0048038345, -0.1588788182, -0.1274569333, -0.1238649264, 0.1743991822, 0.0591160767, -0.1009498313, 0.0999763086, 0.1121844798, -0.0570291318, 0.1548032016, -0.0395388417, 0.0847577751, -0.1726080775, -0.0028280956, -0.1614275873, 0.1667203009, 0.1296788901, -0.1185440570, -0.1163270250, 0.0209480152, 0.1721657813, 0.0537038930, 0.1723337173, 0.0196481235, 0.0101726055, -0.1340350956, 0.1516716331, 0.1318355948, 0.0716310367, 0.0087702107, 0.0622663833, -0.1334647089, 0.1494174451, 0.1133590713, -0.1306053400, -0.1440510303, -0.0465937406, 0.1060837656, -0.1536165178, -0.0974585563, -0.1694413275, -0.0303102639, 0.0634908751, 0.1294623464, -0.0336807482, 0.1280640215, -0.0682382360, -0.1258015782, 0.1572434455, 0.1285904944, 0.0069884742, -0.0725628808, 0.1142676696, 0.0761885643, -0.1134686098, -0.1139372140, -0.1455889940, 0.0954553634, 0.1151876077, -0.0841372013, 0.0757745504, -0.1101585403, -0.1236983612, 0.0948226973, -0.0859935209, -0.0986530408, -0.1658337414, 0.1071806327, 0.0533728078, -0.0513820238, -0.0361948907, -0.0282213818, -0.1439084113, -0.0130861960, 0.1015198305, 0.1250180304, 0.1216829643, 0.1373208314, 0.1578424722, -0.0456178524, -0.0491385683, -0.1715480834, 0.0576943979, -0.0035595121, -0.1750334203, 0.1556667686, -0.1232982650, -0.1242353767, -0.0202233642, 0.0597701296, 0.0926194042, 0.0291512888, 0.1740482152, -0.0912100151, 0.0593162104, -0.1363418549, 0.1637738198, -0.0090777148, -0.0669271052, 0.1394928247, -0.0119159464, 0.0897613242, -0.0333145745, 0.0041996171, -0.1720203012, 0.1272201389, 0.1088837236, 0.1746927649, -0.1134519354, -0.0679289997, -0.1061047912, 0.0434186906, 0.0002665156, 0.1314943731, 0.1174891219, -0.0195074789, -0.0736912787, -0.0505262539, -0.0414581038, 0.1321901977, 0.0340381525, -0.0379470624, 0.0397602208, -0.0740319937, -0.0911462903, -0.0103752259, 0.1285294890, 0.0787871033, 0.0770748705, 0.0662743151, 0.0814264640, 0.1218111515, -0.1598604620, -0.1223692223, -0.0285494737, 0.1649363339, 0.0727936327, -0.1269169152, -0.0133376652, -0.1264661103, 0.0527794026, -0.0083751902, -0.1027617306, -0.0543355457, 0.1523234248, 0.0688650385, -0.0814693719, -0.1494231075, 0.1694552600, 0.0012734880, 0.0793423653, 0.1403811127, -0.1053456217, -0.1649460793, 0.0270493403, -0.0383151919, -0.1655738652, 0.1261896789, -0.0099063851, 0.0791212842, 0.0932064280, 0.1406555325, -0.1477621496, 0.0469511896, -0.0835247710, 0.0812876150, 0.0895760655, 0.1097405702, -0.0239004660, -0.1542869061, 0.1558077931, -0.0660630167, -0.1352158487, -0.0977724865, 0.0203125048, 0.1517503411, -0.0351849459, 0.0238170363, -0.0319794267, -0.0416011102, 0.1243264154, 0.1654529274, 0.0977667347, 0.0970326439, -0.1729981005, 0.0033000140, -0.0222080164, 0.0639679357, -0.1490928531, 0.1467335373, -0.1677514017, -0.0974874273, -0.1230323166, -0.1059445068, 0.1686114967, 0.1579107493, -0.1501333117, -0.1575683504, 0.1268017888, -0.0049128262, -0.0385881998, 0.0515027940, 0.0954416841, 0.0965810195, 0.1437514573, -0.0273531768, 0.1312961131, -0.0538028963, 0.1411312670, 0.1042347178, 0.1021593437, 0.0640001744, -0.0475177877, 0.0332079232, -0.0365613140, 0.1591998339, -0.0438889451, -0.1109048128, 0.1103842780, -0.0181979556, -0.0465833098, -0.1210333109, -0.0407572873, 0.0973044485, 0.0810483024, -0.0432932824, 0.0774094686, -0.0543053485, -0.0850672200, 0.1685597897, -0.1671166122, 0.1157464534, -0.1195522696, 0.0353215039, -0.0485108942, 0.1055774540, -0.1702845842, 0.0994208753, 0.0673135296, -0.0515043736, -0.0277915262, -0.1341233850, 0.0408677347, 0.0073101181, 0.0848239884, 0.1701250523, 0.0180147421, 0.1351179928, -0.1253485680, 0.1331266761, 0.0923341587, 0.1645048559, -0.0060873115, 0.1403976381, 0.0869676620, 0.1563538611, -0.0293877106, 0.1040787771, 0.0962457582, 0.1319550574, -0.0102993408, 0.0879939571, 0.1347687393, -0.0956431702, 0.1072796136, -0.1530576050, 0.0380351506, 0.1279683709, 0.0899925381, 0.0595688149, -0.1022152975, -0.1072685122, -0.1716553718, 0.1270118505, 0.0427970067, -0.0053516170, 0.0790394992, -0.0432764031, 0.0257748831, -0.0753646344, -0.0741178244, 0.1382027864, 0.0578750409, 0.1492412090, -0.1377229244, 0.0227945317, -0.0746966302, -0.0743841305, 0.0794204473, -0.0275628790, 0.1578842551, -0.1732781231, -0.1722901613, 0.1432316005, 0.0234124046, -0.0398911051, 0.0190205351, 0.0881975293, -0.0888846070, -0.1237751320, -0.1687938422, 0.0373913981, 0.0312137455, -0.0365416557, -0.1538061351, 0.0087939184, 0.0776446536, -0.0933534577, -0.0982615650, -0.0049124681, -0.0451655537, 0.0969060734, 0.0544718280, -0.1348381191, 0.0909322873, 0.0521905459, -0.0591470301, -0.0896007642, 0.1450711191, 0.0880026370, -0.1129151583, 0.0421120338, -0.1547576785, 0.0699788108, 0.1322157085, -0.1293961108, -0.1016752422, -0.1061915755, -0.1617858559, -0.0275318380, -0.0437548347, -0.0051693739, -0.0737731084, 0.0177220758, -0.0934773907, -0.1136319488, -0.0087060640, 0.0889339820, -0.1506627649, -0.0868997201, -0.0829654783, 0.0914195701, 0.0775933564, 0.1291560829, 0.1458474994, -0.0420443043, 0.1544830054, -0.0622318015, -0.0286036115, 0.0904609561, -0.1038911566, 0.0974456221, -0.1183561236, -0.0813970268, -0.0094166808, 0.1483300775, 0.0171594564, -0.1145937815, 0.0386433899, 0.0299386345, 0.0370023176, -0.1633011252, -0.1238040924, -0.1497515440, 0.0328969620, 0.1742763370, 0.0331038423, 0.1159869060, 0.1308978498, 0.1156491414, 0.0716609582, -0.1409620345, -0.0781009123, -0.0438435972, -0.1731188744, -0.1351275295, -0.1519429684, 0.1295776665, 0.0013613643, -0.1597520858, 0.1663486809, 0.0950983539, 0.0107688988, -0.1765007377, 0.0931759551, 0.1012585610, 0.1644677669, 0.1736345589, -0.0637719333, -0.0332020223, -0.0965747163, -0.1229167059, -0.0216840897, -0.0913467780, -0.1040978283, -0.0919534191, -0.1647552252, 0.1326209605, -0.0699982420, -0.1246569306, -0.0479987673, -0.1509696096, 0.0486847945, 0.0601850674, -0.1333057135, 0.0575623959, -0.1689698696, -0.0149103748, 0.1558014452, 0.1150971800, 0.0103076231, 0.1331808120, 0.0216782521, -0.0935644433, 0.1288617551, -0.1746437848, -0.0717316568, -0.0402960964, 0.0694930255, 0.0256639961, 0.1612397432, -0.1020323336, 0.1214664131, 0.1040334031, -0.0221218262, 0.1005428433, -0.0238008946, 0.1646990478, 0.0552299023, 0.1564750820, 0.0255966019, -0.0925649479, -0.0275086369, 0.1041769311, 0.0295846220, -0.1171913370, 0.1264070421, 0.0339070112, -0.1481019408, 0.0264724977, 0.0683514625, 0.0929697528, -0.0143139968, -0.0108347321, -0.1675861031, 0.0344408043, 0.1201866865, -0.0677965134, 0.1062802523, 0.1765862703, -0.1430650502, 0.1287668794, 0.0871010795, 0.0648706555, -0.0525514930, 0.1631519496, 0.1335109025, 0.0827926323, 0.0993780121, -0.1075916514, -0.1705721021, 0.0186407082, 0.0802606419, -0.1467332244, 0.0109203961, 0.0128488457, -0.0026234095, 0.0452137701, 0.1666251570, -0.0877469555, -0.1241141185, 0.0078086308, 0.1659654528, 0.1442977041, 0.0426276997, 0.0240473263, 0.0584231578, 0.0277729183, 0.0246711206, -0.1708213985, -0.1655494869, -0.0542523302, -0.0108370082, -0.1480499208, 0.1738289893, 0.1460551620, 0.0717620254, -0.0397557728, 0.1714478582, -0.1243107170, 0.0106123444, 0.1697994918, -0.0398661979, 0.0871652886, -0.1743781418, 0.1110709757, 0.0823596418, -0.1232344359, 0.1306130886, -0.0927640945, -0.1163382381, 0.1139414534, -0.1386335641, 0.1300511807, 0.1008653492, 0.0525331795, 0.0084207505, -0.1707613468, -0.1517033279, -0.0375364684, -0.0896993428, -0.0273637362, 0.1744568646, 0.0430543534, 0.1751065254, -0.1599610746, -0.0893094242, -0.0893594697, -0.0678539798, -0.0403765105, 0.0277190544, 0.0223000664, 0.0897009447, 0.1186994538, -0.0892995000, -0.1514303535, 0.0608539991, 0.0441865027, -0.0620229207, -0.0698499307, 0.1215392202, -0.1326601356, 0.1512547582, -0.1578950584, -0.0294799712, -0.0110283550, 0.0082574943, -0.1360111088, -0.0886836722, 0.0777105242, -0.1439148337, -0.1734870076, 0.0679763928, -0.1644345373, 0.0905232504, 0.0731013864, 0.1231806353, -0.1353717744, 0.1072245762, -0.0146224275, 0.0049522338, 0.1363899410, 0.0753899813, 0.0929725543, 0.1515731364, 0.0974655524, -0.0469001494, 0.0977662727, 0.0413845815, -0.0342971459, 0.1634733826, 0.1762116998, -0.0571002327, 0.0156987533, -0.0620294139, 0.1063180119, 0.1508248597, -0.1702200919, -0.1103327349, 0.0430398956, 0.1471857280, -0.1031103656, -0.0091044353, -0.1689238101, 0.0450742207, 0.1144693643, -0.0956140831, 0.1701837033, -0.1584231257, 0.1117712930, 0.0896804631, -0.0771796256, -0.1245557591, 0.1625796109, -0.0618357696, -0.0848118290, 0.1608332545, -0.0258133225, 0.0597093143, -0.0139606800, 0.1151390746, -0.1350090802, 0.0328700319, 0.0334369503, -0.1364944875, -0.1048182845, -0.0829638541, -0.0779519454, -0.0026615735, -0.0147959674, -0.1028556079, 0.1295327097, -0.0065527810, -0.1121344715, 0.0321155600, 0.1268047094, 0.1738086045, -0.1294691563, -0.0674452409, 0.0153854964, 0.1615085602, 0.1740894467, -0.1597225368, -0.0932644829, -0.0474034250, -0.0756798461, -0.0455297232, 0.0001760263, -0.1360424608, -0.1622826457, 0.0487905815, 0.1276072711, 0.0906972960, 0.0385529436, 0.1139066815, -0.0428283624, -0.1726191789, 0.0136269191, 0.1242947653, -0.1684307754, -0.0329200588, -0.1155256480, 0.0947234631, 0.1641674489, -0.1044458523, -0.1304558516, 0.1017401293, -0.1581999213, 0.1720637083, 0.1755816042, -0.0812864974, -0.0722944662, 0.0579768457, -0.1048753113, -0.0497789048, -0.0882613584, 0.0395362936, -0.0628102273, 0.0228994358, 0.0858610943, 0.1091735289, -0.0944398344, 0.1177618355, -0.1721542776, -0.1137723997, 0.1535105556, -0.0123756845, -0.0649146363, 0.1506923884, 0.0863688588, 0.0687959418, 0.1067844331, -0.1523562670, 0.0610046126, 0.0555765815, -0.0965430662, 0.1174661517, -0.0365970135, -0.1345683038, 0.1475980729, -0.0193446241, -0.1015107036, 0.1220592111, -0.1075178087, 0.0044439002, 0.0998649746, 0.1279803813, -0.1686026901, -0.0196484607, -0.0728967488, 0.1525613070, 0.0441825204, -0.1595907062, 0.0697355419, 0.0815727189, -0.0801554620, -0.1513999552, 0.0922831967, -0.0372901410, 0.0542208031, -0.1115571037, -0.0930834189, 0.0090047158, 0.0716862902, 0.0217535682, 0.0845728368, 0.0391741470, 0.1335709691, 0.0242598522, -0.1607481688, -0.1460145563, 0.1317328662, 0.0626290366, 0.1384772658, 0.1457606107, 0.0143476930, 0.0388390794, 0.0055925073, -0.1335721910, -0.1570535749, -0.0585931800, 0.0608474240, -0.0033133745, -0.0048992760, 0.0486199073, 0.1420690119, -0.0923133790, 0.0412276238, 0.0760729089, -0.1070532426, 0.0234101918, 0.0299279504, -0.1685215384, 0.1247928143, -0.0564450622, -0.1210466325, -0.0695248917, 0.1430057138, -0.0938790888, -0.0485248864, 0.0707228929, -0.0736591369, -0.0724929795, 0.0951456651, -0.1664241403, 0.0533084497, 0.1032504663, 0.0504439622, 0.1665226966, 0.0970887393, -0.0886204466, -0.1687207669, -0.0301088225, 0.0241837986, -0.1128346324, -0.1028014719, 0.1118603870, 0.0619659610, -0.1550038457, 0.0415390916, -0.1503236443, -0.0153047638, -0.1582928151, 0.0093071833, 0.0643839240, -0.1201579645, -0.0524184555, 0.0951879844, -0.0983707830, -0.0112960506, -0.0503634401, -0.1657162905, 0.0657026991};

#endif

#endif
